Language model created by QuickLM on Wed Dec 28 15:46:37 EST 2016
Copyright (c) 1996-2010 Carnegie Mellon University and Alexander I. Rudnicky

The model is in standard ARPA format, designed by Doug Paul while he was at MITRE.

The code that was used to produce this language model is available in Open Source.
Please visit http://www.speech.cs.cmu.edu/tools/ for more information

The (fixed) discount mass is 0.5. The backoffs are computed using the ratio method.
This model based on a corpus of 1 sentences and 7 words

\data\
ngram 1=7
ngram 2=6
ngram 3=5

\1-grams:
-1.1461 </s> -0.3010
-1.1461 <s> -0.2688
-1.1461 DEAD -0.2688
-1.1461 GO -0.2688
-1.1461 I -0.2688
-1.1461 LET'S -0.2688
-1.1461 O -0.2688

\2-grams:
-0.3010 <s> LET'S 0.0000
-0.3010 DEAD I 0.0000
-0.3010 GO DEAD 0.0000
-0.3010 I O 0.0000
-0.3010 LET'S GO 0.0000
-0.3010 O </s> -0.3010

\3-grams:
-0.3010 <s> LET'S GO
-0.3010 DEAD I O
-0.3010 GO DEAD I
-0.3010 I O </s>
-0.3010 LET'S GO DEAD

\end\
